a	|	0.149531733971	0.517256514096	1.04334960999	0.254892249629	-0.438254930931	-0.949080554697	1.04334960999	1.04334960999	-0.661398482245	0.350202429433	0.149531733971	-0.255933374137	0.0317486983146	1.21040369466	-0.438254930931	-0.949080554697	-0.949080554697	1.21040369466
c	|	0.0317486983146	-0.438254930931	-1.35454566281	-0.10178269431	-0.949080554697	-0.661398482245	-0.661398482245	-0.661398482245	-1.35454566281	-2.04769284337	-0.949080554697	-2.04769284337	0.0317486983146	-2.04769284337	-0.661398482245	-0.661398482245	1.1711829815	-2.04769284337
t	|	0.254892249629	0.254892249629	-0.438254930931	-0.438254930931	0.948039430189	-1.35454566281	-1.35454566281	-1.35454566281	1.13036098698	0.785520500691	0.842678914531	1.04334960999	0.59136448625	-1.35454566281	0.996829594358	0.0317486983146	-1.35454566281	-2.04769284337
g	|	-0.661398482245	-0.949080554697	-1.35454566281	0.149531733971	-0.949080554697	1.04334960999	-0.949080554697	-0.949080554697	-2.04769284337	-1.35454566281	-2.04769284337	-1.35454566281	-2.04769284337	-1.35454566281	-2.04769284337	0.724895878875	-2.04769284337	-0.949080554697
